<?xml version="1.0"?>
<opencv_storage>
<foc_obs type_id="opencv-ml-ann-mlp">
  <layer_sizes type_id="opencv-matrix">
    <rows>1</rows>
    <cols>3</cols>
    <dt>i</dt>
    <data>
      6 16 1</data></layer_sizes>
  <activation_function>SIGMOID_SYM</activation_function>
  <f_param1>5.9999999999999998e-001</f_param1>
  <f_param2>1.</f_param2>
  <min_val>-9.4999999999999996e-001</min_val>
  <max_val>9.4999999999999996e-001</max_val>
  <min_val1>-9.7999999999999998e-001</min_val1>
  <max_val1>9.7999999999999998e-001</max_val1>
  <training_params>
    <train_method>BACKPROP</train_method>
    <dw_scale>1.0000000000000001e-001</dw_scale>
    <moment_scale>1.0000000000000001e-001</moment_scale>
    <term_criteria><epsilon>9.9999999747524271e-007</epsilon>
      <iterations>1000</iterations></term_criteria></training_params>
  <input_scale>
    2.0047092311841194e-002 -3.1594136650163079e-001
    6.0179553029601268e-005 -2.0850998278288091e+000
    1.6979627888242011e-004 -1.4450972595387983e+000
    7.3621019723344098e-005 -1.9242478220086894e+000
    5.7157720002530291e-002 -1.3676132926712130e+000
    1.2402866005883873e-002 -5.2232194504856178e-001</input_scale>
  <output_scale>
    5.2631578947368418e-001 4.9999999999999994e-001</output_scale>
  <inv_output_scale>
    1.8999999999999999e+000 -9.4999999999999996e-001</inv_output_scale>
  <weights>
    <_>
      2.3975133258967487e+000 8.4048752465470267e-001
      1.0258614290389334e+000 -1.7239152270500944e+000
      -3.9591044082197580e+000 -1.8382445132522882e+000
      3.0183329035198669e+000 -2.4324740888192811e-001
      -1.6527044621864491e+000 3.6816361903929407e+000
      4.5898376639583088e-001 -2.3652633003794885e+000
      -2.4998753154799167e+000 3.9032397802238911e-001
      -2.4289009299961370e+000 5.4574537197187156e-001
      -5.1390553240416708e+000 3.1480999717199505e+000
      4.1705124715939756e-001 -1.3618976196432384e-001
      2.6372003432665259e+000 -2.3762920973170236e+000
      9.4261640352925169e-002 -2.3134059103678611e-001
      -2.5872903874082248e-001 4.3939866826583240e-002
      -6.3683929210461190e-002 1.1406909858120595e-001
      -3.7521383628025574e-002 2.9451638925757329e-001
      -2.7712804452613576e-001 6.4375828415817904e-002
      1.6571940522766482e+000 -1.3848549000586820e+001
      -1.7169399364806548e-001 3.0344514925904281e-001
      4.8042889187560656e+000 -5.0260051952451930e+000
      -1.0934213335743643e+000 -1.8893048543687213e-001
      9.9585862888253818e-001 -1.0609902508271216e+000
      -1.0137935877563715e-001 -4.0040654274723453e+000
      8.9913681824272662e-001 2.7770318724796350e-001
      1.1033875628166032e+000 -3.9689600584206836e-001
      -7.2329102599765189e+000 1.0123146009571075e+001
      1.4883672906610493e-001 -2.9092446710301045e-001
      7.6205128316493276e-001 -5.5884939492771168e-001
      6.1513204464778448e-001 -2.5632494961158675e-001
      -3.7726678800294683e-001 5.9029935301587733e-001
      5.7818710129364415e-001 1.2079970650445728e+000
      -6.2902583295617764e-001 3.8678315491110227e-001
      -4.1705303317805209e-001 6.7347496196506051e-001
      -1.1968298695298845e+000 -1.0306730772005620e+001
      -3.6355634808697267e-002 -3.0290956783303791e-001
      1.5515527828086009e-001 -9.6451555487256755e+000
      1.1997633697660568e+000 -9.3509583020306916e-002
      -1.0489726883895263e+000 1.0308226034797332e+000
      5.2866793125711055e-002 -5.4349555116877317e+000
      -1.0483672813936196e+000 -2.4247696825902146e-001
      -1.1498400523189392e+000 5.3675302061173003e-001
      8.4496409401644108e+000 -3.3087730726043776e+000
      -3.5981306500737449e+000 5.4043561480771931e+000
      9.0233826451977617e+000 4.7008844145403395e-001
      -8.0784179463103367e+000 6.8488629235678122e-001
      5.8820207986978774e+000 -1.0041843556265064e+001
      -2.6220474717011970e+000 9.4082053258218572e+000
      6.7635260639793211e+000 -7.9932295564978373e-001
      7.4560564273826708e+000 -2.8042153733718851e+000
      -1.0282536101257307e+001 -1.6666977021140770e+000
      -3.6504713239980346e-001 5.7927227109612889e-001
      4.9912335531773797e+000 8.1108919193828584e+000
      -2.1935029548294831e+000 -2.6742586166583215e-001
      9.7276848591113441e-001 -3.0879128471143455e+000
      3.2084502119279829e-001 2.4183409923407808e+000
      1.5477680754639636e+000 1.6624688147544467e-001
      1.8509856035302683e+000 -1.0801467308654331e-001</_>
    <_>
      -1.4882738955599470e-001 8.6170836110262723e+000
      2.2791178003278318e+000 -3.7193019394377385e+000
      -7.9313914609763652e+000 -9.2439051324541133e+000
      5.3714295663206952e+000 -4.5827958817076569e-001
      -3.9053697736159081e+000 6.6407078242519049e+000
      1.7227258004895847e+000 -7.4159341525178535e+000
      -4.5316017896012735e+000 6.4507189688591426e-001
      -4.9190077752947765e+000 1.7740785148770066e+000
      -1.0892299276773854e+000</_></weights></foc_obs>
</opencv_storage>
